svm_type c_svc
kernel_type precomputed
nr_class 3
total_sv 54
rho -8.6231730430957523 -6.6758037017396861 2.5189494702605093
label 0 1 2
nr_sv 20 13 21
SV
0 1 0:151 
0 1 0:207 
0.57365576973410204 1 0:249 
0 0.80829559929115391 0:263 
0 1 0:266 
0 1 0:305 
0.80785127616788299 0 0:399 
1 0 0:410 
0 1 0:420 
0 1 0:433 
0 1 0:442 
0 1 0:448 
1 0 0:467 
0 1 0:497 
0 1 0:509 
0 1 0:536 
0 1 0:778 
0 1 0:792 
1 0.62739110660990693 0:855 
1 0 0:954 
-0 1 0:1028 
-1 0.007427469555769433 0:1066 
-0 1 0:1081 
-0 1 0:1293 
-1 0 0:1361 
-1 0 0:1363 
-0 1 0:1390 
-0 0.2711653196303393 0:1574 
-0 0.010106159060722082 0:1621 
-0 1 0:1754 
-1 0 0:1828 
-1 0 0:1864 
-0.38150704590198481 0 0:1991 
-1 -0 0:2137 
-1 -0 0:2141 
-1 -1 0:2205 
-1 -0 0:2227 
-1 -0 0:2266 
-1 -0 0:2289 
-1 -0 0:2343 
-0 -0.28869894824683168 0:2522 
-1 -0 0:2529 
-0 -1 0:2533 
-0 -1 0:2573 
-1 -0 0:2641 
-1 -0 0:2688 
-0 -1 0:2702 
-1 -0 0:2704 
-1 -0 0:2735 
-0.43568670590105996 -0 0:2795 
-1 -0 0:2846 
-0 -1 0:2943 
-1 -0 0:2960 
-1 -0 0:2991 
